0 5.53059464091 0.765500138288
1 4.6941068434 0.733534364776
2 4.08414592345 0.705292059964
3 3.61649760935 0.679922846458
4 3.24500669165 0.656850887468
5 2.94193692786 0.63566545345
6 2.68948561192 0.616061911764
7 2.47564208032 0.597807303613
8 2.2919793812 0.580719029346
9 2.13239433531 0.564651014761
10 1.99234906275 0.549484383353
11 1.86839396565 0.535120964449
12 1.75785658621 0.521478652513
13 1.65863229265 0.508488012824
14 1.56903967961 0.496089748915
15 1.48771834186 0.484232779727
16 1.41355512431 0.472872757038
17 1.34562995133 0.46197090652
18 1.28317539478 0.451493110553
19 1.22554605831 0.441409174253
20 1.1721950913 0.43169223214
21 1.12265595785 0.422318264087
22 1.07652813147 0.413265697059
23 1.03346575881 0.404515074907
24 0.993168594078 0.396048782618
25 0.955374688282 0.387850814515
26 0.919854447599 0.3799065782
27 0.88640576954 0.37220272779
28 0.854850034521 0.364727021293
29 0.825028781627 0.357468198038
30 0.796800935554 0.350415872839
31 0.770040480566 0.343560444205
32 0.744634499297 0.336893014401
33 0.720481511095 0.330405319572
34 0.697490057672 0.324089668412
35 0.675577494033 0.31793888818
36 0.654668950613 0.311946276991
37 0.634696438935 0.306105561551
38 0.615598078065 0.300410859577
39 0.59731742322 0.294856646316
40 0.579802881068 0.289437724603
41 0.563007198932 0.284149198052
42 0.546887017171 0.278986446957
43 0.531402475821 0.27394510661
44 0.516516867932 0.269021047724
45 0.50219633327 0.264210358739
46 0.488409586986 0.259509329785
47 0.475127678682 0.254914438121
48 0.46232377797 0.250422334889
49 0.449972983186 0.24602983305
50 0.438052150382 0.241733896362
51 0.426539740154 0.237531629305
52 0.415415680144 0.233420267856
53 0.404661241402 0.229397171021
54 0.394258926998 0.225459813061
55 0.384192371479 0.221605776336
56 0.374446249988 0.217832744714
57 0.365006195954 0.214138497486
58 0.355858726442 0.210520903754
59 0.346991174344 0.206977917225
60 0.338391626687 0.203507571407
61 0.330048868432 0.200107975141
62 0.321952331198 0.196777308459
63 0.314092046427 0.193513818737
64 0.306458602536 0.190315817106
65 0.299043105679 0.187479986336
66 0.291837143763 0.184723439088
67 0.284832753416 0.182022944473
68 0.278022389623 0.179377114805
69 0.27139889779 0.176784610037
70 0.264955488008 0.174244135423
71 0.258685711324 0.171754439334
72 0.252583437838 0.16931431121
73 0.246642836463 0.166922579642
74 0.24085835621 0.164578110564
75 0.235224708859 0.162279805562
76 0.229736852905 0.160026600281
77 0.224389978668 0.157817462925
78 0.219179494477 0.155651392841
79 0.214101013824 0.153527419197
80 0.209150343432 0.151444599716
81 0.20432347215 0.149402019498
82 0.199616560602 0.147398789898
83 0.195025931555 0.145434047467
84 0.19054806092 0.143506952949
85 0.186179569371 0.14161669034
86 0.181917214498 0.139762465982
87 0.177757883484 0.137943507714
88 0.173698586255 0.136159064068
89 0.169736449064 0.134408403498
90 0.165868708487 0.132690813655
91 0.16209270579 0.131005600693
92 0.15840588165 0.129352088613
93 0.154805771205 0.127729618634
94 0.151289999396 0.126147759294
95 0.147856276599 0.124847773342
96 0.144502394517 0.123573370005
97 0.14122622231 0.122324006391
98 0.138025702962 0.121099153208
99 0.13489884985 0.119898294316
100 0.131843743516 0.118720926297
101 0.128858528623 0.117566558039
102 0.12594141108 0.116434710347
103 0.123090655336 0.115324915565
104 0.120304581814 0.114236717214
105 0.117581564491 0.113169669649
106 0.114920028616 0.11212333773
107 0.112318448539 0.111097296501
108 0.109775345667 0.110091130891
109 0.107289286522 0.109104435418
110 0.104858880905 0.108136813914
111 0.102482780152 0.107187879253
112 0.10015967548 0.106257253092
113 0.0978882964241 0.105344565627
114 0.095667409345 0.104449455348
115 0.0934958160153 0.103571568816
116 0.0913723522759 0.102710560438
117 0.0892958867586 0.101866092252
118 0.0872653196696 0.101037833727
119 0.0852795816331 0.10022546156
120 0.0833376325891 0.0994286594884
121 0.0814384607438 0.0986471181045
122 0.0795810815691 0.0978805346771
123 0.0777645368481 0.0971286129809
124 0.0759878937651 0.0963910631299
125 0.0742502440362 0.0956676014173
126 0.0725507030792 0.0949579501605
127 0.0708884092213 0.094261837551
128 0.0692625229401 0.0935789975097
129 0.0676722261393 0.092909169546
130 0.0661167214546 0.0922520986219
131 0.0645952315899 0.0916075350207
132 0.0631069986812 0.0909752342189
133 0.0616512836872 0.0903707699867
134 0.0602273658054 0.0899446465139
135 0.0588345419117 0.0895279082068
136 0.0574721260229 0.0891203568319
137 0.056139448781 0.088721798403
138 0.0548358569578 0.0883320430815
139 0.0535607129787 0.0879509050787
140 0.0523133944655 0.0875782025618
141 0.0510932937962 0.0872137575621
142 0.0498998176823 0.0868573958858
143 0.0487323867612 0.0865089470274
144 0.0475904352045 0.0861682440859
145 0.0464734103399 0.0858351236822
146 0.0453807722877 0.0855094258802
147 0.0443119936103 0.0851909941087
148 0.0432665589734 0.0848796750862
149 0.0422439648199 0.0845753187475
150 0.0412437190553 0.0842777781722
151 0.0402653407434 0.0839869095151
152 0.0393083598126 0.0837025719381
153 0.0383723167725 0.0834391101593
154 0.0374567624395 0.0832095827004
155 0.0365612576717 0.0829853929722
156 0.0356853731122 0.0827664264055
157 0.0348286889417 0.0825525708308
158 0.0339907946375 0.0824352794961
159 0.0331712887415 0.0823710387594
160 0.032369778635 0.0823088686797
161 0.03158588032 0.0822487192471
162 0.0308192182084 0.0821905415576
163 0.0300694249165 0.0821342877889
164 0.0293361410664 0.0820799111764
165 0.0286190150931 0.0820273659893
166 0.0279177030573 0.0819766075087
167 0.0272318684636 0.0819275920044
168 0.0265611820846 0.0818802767136
169 0.0259053217891 0.0818346198198
170 0.0252639723761 0.081790580432
171 0.0246368254127 0.0817481185643
172 0.0240235790773 0.0817071951166
173 0.0234239380069 0.0816677718548
174 0.0228376131481 0.0816298113924
175 0.022264321613 0.0815932771723
176 0.0217037865383 0.0815581334482
177 0.0211557369489 0.0815243452675
178 0.0206199076242 0.0814918784543
179 0.020096038969 0.0814606995925
180 0.0195838768869 0.0814307760091
181 0.0190831726576 0.0814020757588
182 0.0185936828169 0.0813745676082
183 0.0181151690403 0.0813482210203
184 0.017647398029 0.0813230061396
185 0.0171901413991 0.0812988937779
186 0.0167431755738 0.0812758553994
187 0.0163062816778 0.0812538631073
188 0.0158792454346 0.08123288963
189 0.0154618570662 0.0812129083073
190 0.0150539111958 0.0811938930781
191 0.0146552067517 0.081175818467
192 0.0142655468748 0.0811586595721
193 0.0138847388274 0.0811423920526
194 0.0135125939047 0.0811269921173
195 0.0131489273485 0.0811124365121
196 0.0127935582619 0.0810987025092
197 0.0124463095276 0.0810857678956
198 0.0121070077271 0.0810736109624
199 0.0117754830614 0.0810622104937
200 0.011451569275 0.0810515457564
201 0.01113510358 0.0810415964897
202 0.0108259265833 0.0810323428953
203 0.0105238822142 0.0810237656272
204 0.0102288176551 0.0810158457824
205 0.00994058327222 0.0810085648913
206 0.00965903254925 0.0810019049085
207 0.00938402202149 0.0809958482038
208 0.00911541121197 0.0809903775532
209 0.00885306256892 0.0809854761305
210 0.00859684140453 0.0809811274984
211 0.00834661583514 0.0809773156007
212 0.0081022567227 0.0809740247538
213 0.00786363761757 0.080971239639
214 0.00763063470252 0.0809689452943
215 0.00740312673801 0.0809671271073
216 0.00718099500859 0.0809657708074
217 0.00696412327048 0.0809648624585
218 0.00675239770039 0.0809643884519
219 0.00654570684525 0.0809643354993
220 0.00634394157319 0.0809646906259
221 0.00614699502552 0.0809654411636
222 0.00595476256968 0.0809665747446
223 0.00576714175327 0.0809680792949
224 0.00558403225903 0.0809699430277
225 0.00540533586079 0.0809721544375
226 0.0052309563803 0.0809747022943
227 0.00506079964508 0.0809775756368
228 0.00489477344703 0.0809807637677
229 0.00473278750204 0.080984256247
230 0.00457475341034 0.0809880428873
231 0.00442058461775 0.0809921137475
232 0.00427019637774 0.0809964591283
233 0.00412350571425 0.0810010695663
234 0.00398043138529 0.0810059358292
235 0.00384089384737 0.0810110489107
236 0.00370481522054 0.0810164000257
237 0.00357211925429 0.0810219806054
238 0.00344273129408 0.0810277822923
239 0.00331657824859 0.0810337969363
240 0.00319358855764 0.0810400165895
241 0.00307369216077 0.0810464335019
242 0.0029568204665 0.0810530401176
243 0.00284290632217 0.0810598290697
244 0.00273188398448 0.0810667931769
245 0.00262368909053 0.081073925439
246 0.00251825862959 0.0810812190332
247 0.00241553091529 0.0810886673097
248 0.00231544555855 0.0810962637884
249 0.00221794344093 0.0811040021552
250 0.00212296668862 0.0811118762578
251 0.00203045864688 0.0811198801024
252 0.00194036385509 0.0811280078505
253 0.00185262802225 0.0811362538149
254 0.00176719800297 0.0811446124567
255 0.00168402177403 0.0811530783819
256 0.00160304841134 0.0811616463381
257 0.00152422806739 0.0811703112116
258 0.0014475119492 0.0811790680237
259 0.00137285229665 0.0811879119285
260 0.00130020236131 0.0811968382094
261 0.00122951638566 0.081205842276
262 0.0011607495828 0.081214919662
263 0.00109385811647 0.0812240660217
264 0.00102879908157 0.0812332771275
265 0.000965530485 0.0812425488674
266 0.000904011226982 0.0812518772422
267 0.000844201082663 0.0812612583629
268 0.00078606068415 0.0812706884484
269 0.000729551502898 0.0812801638229
270 0.00067463583245 0.0812896809135
271 0.000621276771532 0.0812992362477
272 0.000569438207487 0.0813088264517
273 0.000519084800052 0.0813184482471
274 0.000470181965453 0.0813280984499
275 0.000422695860837 0.0813377739674
276 0.000376593369003 0.0813474717965
277 0.000331842083458 0.0813571890216
278 0.000288410293766 0.0813669228124
279 0.000246266971199 0.0813766704222
280 0.000205381754675 0.0813864291857
281 0.000165724936981 0.0813961965173
282 0.000127267451284 0.0814059699091
283 8.99808579018e-05 0.081415746929
284 5.38373313488e-05 0.0814255252194
285 1.88096476476e-05 0.0814353024946
286 -1.51288281089e-05 0.0814450765399
287 -4.80041539402e-05 0.0814548452097
288 -7.98418229138e-05 0.0814646064256
289 -0.00011066677484 0.0814743581749
290 -0.00014050340773 0.0814840985094
291 -0.000169375589019 0.0814938255434
292 -0.000197306666567 0.0815035374525
293 -0.000224319479431 0.0815132324718
294 -0.000250436368424 0.0815229088949
295 -0.000275679186454 0.0815325650723
296 -0.00030006930866 0.0815421994099
297 -0.000323627642339 0.0815518103677
298 -0.00034637463667 0.0815613964587
299 -0.000368330292246 0.0815709562474
300 -0.000389514170406 0.0815804883485
301 -0.000409945402384 0.081589991426
302 -0.000429642698268 0.0815994641914
303 -0.00044862435578 0.0816089054033
304 -0.000466908268876 0.0816183138656
305 -0.000484511936169 0.0816276884265
306 -0.000501452469191 0.0816370279776
307 -0.000517746600473 0.0816463314529
308 -0.000533410691473 0.0816555978272
309 -0.000548460740333 0.0816648261158
310 -0.000562912389489 0.0816740153727
311 -0.000576780933116 0.0816831646904
312 -0.000590081324429 0.0816922731983
313 -0.000602828182832 0.0817013400623
314 -0.000615035800919 0.0817103644832
315 -0.000626718151344 0.0817193456965
316 -0.000637888893534 0.081728282971
317 -0.000648561380279 0.0817371756083
318 -0.000658748664184 0.0817460229418
319 -0.000668463503986 0.0817548243355
320 -0.000677718370747 0.0817635791841
321 -0.000686525453916 0.0817722869112
322 -0.000694896667275 0.0817809469693
323 -0.000702843654753 0.0817895588385
324 -0.000710377796134 0.0817981220262
325 -0.000717510212634 0.0818066360661
326 -0.000724251772379 0.0818151005175
327 -0.00073061309576 0.0818235149647
328 -0.000736604560683 0.0818318790164
329 -0.000742236307714 0.0818401923047
330 -0.000747518245111 0.0818484544852
331 -0.000752460053766 0.0818566652352
332 -0.000757071192027 0.0818648242543
333 -0.000761360900446 0.081872931263
334 -0.000765338206404 0.0818809860023
335 -0.000769011928661 0.0818889882335
336 -0.000772390681801 0.081896937737
337 -0.000775482880593 0.0819048343123
338 -0.00077829674426 0.081912677777
339 -0.000780840300655 0.0819204679668
340 -0.000783121390363 0.0819282047345
341 -0.000785147670707 0.0819358879499
342 -0.000786926619681 0.0819435174989
343 -0.000788465539794 0.0819510932833
344 -0.000789771561842 0.0819586152205
345 -0.000790851648597 0.0819660832426
346 -0.000791712598425 0.0819734972961
347 -0.000792361048824 0.0819808573418
348 -0.000792803479896 0.081988163354
349 -0.000793046217737 0.0819954153201
350 -0.000793095437773 0.0820026132404
351 -0.000792957168008 0.0820097571277
352 -0.000792637292221 0.0820168470067
353 -0.000792141553089 0.0820238829137
354 -0.000791475555249 0.0820308648964
355 -0.000790644768289 0.0820377930134
356 -0.00078965452969 0.0820446673337
357 -0.000788510047698 0.0820514879368
358 -0.000787216404136 0.0820582549119
359 -0.000785778557164 0.0820649683578
360 -0.000784201343976 0.0820716283826
361 -0.000782489483445 0.0820782351033
362 -0.00078064757871 0.0820847886456
363 -0.000778680119712 0.0820912891434
364 -0.000776591485676 0.0820977367387
365 -0.00077438594754 0.0821041315815
366 -0.000772067670336 0.0821104738291
367 -0.000769640715522 0.0821167636458
368 -0.000767109043261 0.0821230012034
369 -0.000764476514658 0.08212918668
370 -0.000761746893945 0.0821353202603
371 -0.000758923850627 0.0821414021353
372 -0.000756010961577 0.0821474325019
373 -0.000753011713088 0.0821534115628
374 -0.000749929502887 0.0821593395261
375 -0.000746767642104 0.0821652166055
376 -0.000743529357197 0.0821710430195
377 -0.00074021779184 0.0821768189917
378 -0.00073683600877 0.0821825447504
379 -0.000733386991598 0.0821882205283
380 -0.00072987364658 0.0821938465624
381 -0.000726298804347 0.0821994230938
382 -0.000722665221606 0.0822049503678
383 -0.0007189755828 0.082210428633
384 -0.000715232501736 0.082215858142
385 -0.000711438523178 0.0822212391507
386 -0.0007075961244 0.082226571918
387 -0.000703707716722 0.0822318567063
388 -0.000699775646996 0.0822370937806
389 -0.00069580219907 0.082242283409
390 -0.000691789595222 0.0822474258618
391 -0.000687739997558 0.0822525214123
392 -0.000683655509387 0.0822575703358
393 -0.000679538176558 0.0822625729099
394 -0.000675389988781 0.0822675294144
395 -0.000671212880907 0.082272440131
396 -0.000667008734189 0.0822773053431
397 -0.000662779377517 0.0822821253359
398 -0.000658526588618 0.0822869003964
399 -0.000654252095241 0.0822916308127
400 -0.000649957576311 0.0822963168746
401 -0.000645644663058 0.082300958873
402 -0.000641314940125 0.0823055570998
403 -0.000636969946649 0.0823101118484
404 -0.000632611177322 0.0823146234126
405 -0.000628240083428 0.0823190920875
406 -0.000623858073856 0.0823235181688
407 -0.000619466516095 0.0823279019527
408 -0.000615066737205 0.0823322437362
409 -0.000610660024767 0.0823365438168
410 -0.000606247627812 0.0823408024922
411 -0.000601830757738 0.0823450200607
412 -0.000597410589191 0.0823491968206
413 -0.000592988260944 0.0823533330705
414 -0.000588564876748 0.0823574291091
415 -0.000584141506164 0.0823614852351
416 -0.000579719185381 0.0823655017472
417 -0.000575298918015 0.082369478944
418 -0.000570881675891 0.0823734171238
419 -0.000566468399805 0.0823773165848
420 -0.000562060000272 0.0823811776249
421 -0.00055765735826 0.0823850005414
422 -0.000553261325906 0.0823887856316
423 -0.000548872727211 0.082392533192
424 -0.00054449235873 0.0823962435187
425 -0.00054012099024 0.0823999169073
426 -0.000535759365395 0.0824035536525
427 -0.000531408202366 0.0824071540486
428 -0.000527068194471 0.0824107183892
429 -0.000522740010785 0.0824142469668
430 -0.000518424296739 0.0824177400735
431 -0.000514121674713 0.0824211980002
432 -0.000509832744599 0.0824246210373
433 -0.000505558084371 0.0824280094738
434 -0.000501298250631 0.082431363598
435 -0.000497053779142 0.0824346836973
436 -0.000492825185357 0.0824379700578
437 -0.000488612964931 0.0824412229647
438 -0.00048441759422 0.082444442702
439 -0.000480239530774 0.0824476295526
440 -0.000476079213817 0.0824507837983
441 -0.000471937064713 0.0824539057196
442 -0.000467813487429 0.0824569955957
443 -0.000463708868977 0.0824600537048
444 -0.000459623579859 0.0824630803237
445 -0.00045555797449 0.0824660757277
446 -0.000451512391619 0.0824690401912
447 -0.000447487154739 0.0824719739869
448 -0.000443482572486 0.0824748773862
449 -0.000439498939032 0.0824777506592
450 -0.000435536534464 0.0824805940747
451 -0.00043159562516 0.0824834078997
452 -0.000427676464155 0.0824861924001
453 -0.000423779291497 0.0824889478403
454 -0.000419904334594 0.0824916744831
455 -0.00041605180856 0.0824943725898
456 -0.000412221916542 0.0824970424203
457 -0.000408414850052 0.0824996842331
458 -0.000404630789279 0.0825022982848
459 -0.000400869903403 0.0825048848308
460 -0.000397132350902 0.0825074441248
461 -0.000393418279841 0.082509976419
462 -0.000389727828169 0.082512481964
463 -0.000386061124 0.0825149610087
464 -0.000382418285888 0.0825174138006
465 -0.0003787994231 0.0825198405856
466 -0.000375204635879 0.0825222416078
467 -0.000371634015701 0.0825246171098
468 -0.000368087645531 0.0825269673327
469 -0.000364565600062 0.0825292925158
470 -0.000361067945962 0.0825315928968
471 -0.000357594742107 0.0825338687119
472 -0.000354146039808 0.0825361201955
473 -0.000350721883037 0.0825383475805
474 -0.000347322308645 0.082540551098
475 -0.000343947346577 0.0825427309776
476 -0.000340597020077 0.0825448874472
477 -0.000337271345894 0.082547020733
478 -0.000333970334482 0.0825491310597
479 -0.000330693990189 0.0825512186501
480 -0.000327442311451 0.0825532837257
481 -0.000324215290977 0.0825553265059
482 -0.000321012915925 0.0825573472089
483 -0.000317835168082 0.0825593460509
484 -0.000314682024033 0.0825613232467
485 -0.000311553455332 0.0825632790094
486 -0.000308449428664 0.0825652135502
487 -0.000305369906002 0.0825671270791
488 -0.000302314844767 0.0825690198041
489 -0.000299284197978 0.0825708919317
490 -0.000296277914401 0.0825727436667
491 -0.000293295938693 0.0825745752125
492 -0.000290338211541 0.0825763867705
493 -0.000287404669805 0.0825781785408
494 -0.000284495246647 0.0825799507216
495 -0.000281609871665 0.0825817035098
496 -0.000278748471019 0.0825834371005
497 -0.000275910967557 0.0825851516871
498 -0.000273097280936 0.0825868474616
499 -0.000270307327737 0.0825885246144
500 -0.000267541021586 0.0825901833341
501 -0.000264798273262 0.0825918238079
502 -0.000262078990811 0.0825934462214
503 -0.000259383079646 0.0825950507586
504 -0.000256710442659 0.0825966376018
505 -0.000254060980317 0.0825982069321
506 -0.000251434590763 0.0825997589287
507 -0.000248831169911 0.0826012937693
508 -0.000246250611542 0.0826028116303
509 -0.000243692807393 0.0826043126863
510 -0.00024115764725 0.0826057971104
511 -0.000238645019028 0.0826072650745
512 -0.000236154808863 0.0826087167485
513 -0.000233686901188 0.0826101523011
514 -0.000231241178817 0.0826115718996
515 -0.000228817523022 0.0826129757095
516 -0.000226415813609 0.082614363895
517 -0.000224035928989 0.0826157366189
518 -0.000221677746256 0.0826170940423
519 -0.000219341141249 0.0826184363251
520 -0.000217025988629 0.0826197636257
521 -0.000214732161938 0.0826210761008
522 -0.000212459533665 0.082622373906
523 -0.000210207975313 0.0826236571953
524 -0.000207977357453 0.0826249261214
525 -0.00020576754979 0.0826261808355
526 -0.000203578421216 0.0826274214873
527 -0.000201409839866 0.0826286482254
528 -0.000199261673177 0.0826298611968
529 -0.000197133787936 0.0826310605472
530 -0.000195026050333 0.082632246421
531 -0.000192938326012 0.082633418961
532 -0.000190870480118 0.082634578309
533 -0.000188822377344 0.0826357246051
534 -0.00018679388198 0.0826368579885
535 -0.000184784857952 0.0826379785966
536 -0.000182795168871 0.082639086566
537 -0.000180824678069 0.0826401820315
538 -0.000178873248644 0.082641265127
539 -0.000176940743498 0.082642335985
540 -0.000175027025374 0.0826433947366
541 -0.000173131956896 0.0826444415117
542 -0.000171255400601 0.082645476439
543 -0.000169397218977 0.082646499646
544 -0.000167557274496 0.0826475112589
545 -0.000165735429646 0.0826485114026
546 -0.000163931546962 0.0826495002009
547 -0.000162145489059 0.0826504777764
548 -0.000160377118661 0.0826514442503
549 -0.000158626298628 0.0826523997428
550 -0.000156892891984 0.0826533443729
551 -0.000155176761949 0.0826542782584
552 -0.000153477771956 0.082655201516
553 -0.000151795785685 0.0826561142611
554 -0.000150130667082 0.082657016608
555 -0.000148482280383 0.08265790867
556 -0.00014685049014 0.0826587905591
557 -0.000145235161239 0.0826596623864
558 -0.000143636158923 0.0826605242615
559 -0.000142053348814 0.0826613762934
560 -0.000140486596927 0.0826622185895
561 -0.000138935769698 0.0826630512566
562 -0.000137400733994 0.0826638744002
563 -0.000135881357134 0.0826646881245
564 -0.000134377506907 0.0826654925332
565 -0.000132889051587 0.0826662877283
566 -0.000131415859948 0.0826670738114
567 -0.000129957801281 0.0826678508826
568 -0.000128514745407 0.0826686190412
569 -0.000127086562691 0.0826693783853
570 -0.000125673124059 0.0826701290124
571 -0.000124274301002 0.0826708710185
572 -0.000122889965599 0.0826716044989
573 -0.000121519990522 0.082672329548
574 -0.000120164249048 0.082673046259
575 -0.000118822615072 0.0826737547242
576 -0.000117494963116 0.0826744550351
577 -0.000116181168339 0.082675147282
578 -0.000114881106545 0.0826758315546
579 -0.000113594654195 0.0826765079414
580 -0.000112321688413 0.08267717653
581 -0.000111062086994 0.0826778374072
582 -0.000109815728414 0.0826784906588
583 -0.000108582491835 0.0826791363699
584 -0.000107362257112 0.0826797746245
585 -0.000106154904801 0.0826804055057
586 -0.000104960316164 0.0826810290959
587 -0.000103778373175 0.0826816454766
588 -0.000102608958525 0.0826822547284
589 -0.000101451955628 0.0826828569309
590 -0.000100307248626 0.0826834521632
591 -9.91747223922e-05 0.0826840405033
592 -9.80542625356e-05 0.0826846220285
593 -9.69457554052e-05 0.0826851968152
594 -9.58490880932e-05 0.0826857649391
595 -9.47641484384e-05 0.082686326475
596 -9.36908250295e-05 0.0826868814969
597 -9.2629007207e-05 0.0826874300781
598 -9.15785850665e-05 0.0826879722911
599 -9.05394494607e-05 0.0826885082076
600 -8.95114920009e-05 0.0826890378986
601 -8.8494605059e-05 0.0826895614341
602 -8.74886817693e-05 0.0826900788837
603 -8.64936160295e-05 0.0826905903161
604 -8.55093025015e-05 0.0826910957992
605 -8.45356366125e-05 0.0826915954002
606 -8.35725145558e-05 0.0826920891857
607 -8.26198332912e-05 0.0826925772215
608 -8.16774905443e-05 0.0826930595726
609 -8.07453848079e-05 0.0826935363034
610 -7.98234153416e-05 0.0826940074777
611 -7.89114821705e-05 0.0826944731584
612 -7.80094860856e-05 0.0826949334079
613 -7.71173286433e-05 0.0826953882878
614 -7.62349121638e-05 0.0826958378592
615 -7.53621397311e-05 0.0826962821823
616 -7.4498915191e-05 0.0826967213167
617 -7.36451431504e-05 0.0826971553217
618 -7.28007289762e-05 0.0826975842555
619 -7.19655787923e-05 0.0826980081758
620 -7.11395994802e-05 0.0826984271399
621 -7.03226986753e-05 0.0826988412041
622 -6.95147847662e-05 0.0826992504245
623 -6.87157668919e-05 0.0826996548562
624 -6.79255549399e-05 0.0827000545539
625 -6.71440595446e-05 0.0827004495718
626 -6.63711920838e-05 0.0827008399633
627 -6.56068646773e-05 0.0827012257812
628 -6.48509901839e-05 0.082701607078
629 -6.41034821986e-05 0.0827019839053
630 -6.33642550503e-05 0.0827023563143
631 -6.26332237988e-05 0.0827027243556
632 -6.19103042316e-05 0.0827030880794
633 -6.11954128615e-05 0.082703447535
634 -6.04884669232e-05 0.0827038027715
635 -5.978938437e-05 0.0827041538373
636 -5.90980838714e-05 0.0827045007802
637 -5.84144848086e-05 0.0827048436477
638 -5.77385072724e-05 0.0827051824865
639 -5.7070072059e-05 0.0827055173429
640 -5.64091006667e-05 0.0827058482629
641 -5.57555152926e-05 0.0827061752916
642 -5.51092388294e-05 0.0827064984738
643 -5.44701948602e-05 0.0827068178539
644 -5.38383076574e-05 0.0827071334757
645 -5.32135021765e-05 0.0827074453824
646 -5.25957040537e-05 0.0827077536169
647 -5.19848396023e-05 0.0827080582216
648 -5.13808358074e-05 0.0827083592384
649 -5.07836203237e-05 0.0827086567086
650 -5.0193121471e-05 0.0827089506733
651 -4.96092682294e-05 0.0827092411729
652 -4.90319902371e-05 0.0827095282475
653 -4.84612177845e-05 0.0827098119366
654 -4.78968818113e-05 0.0827100922795
655 -4.73389139025e-05 0.0827103693149
656 -4.67872462835e-05 0.082710643081
657 -4.62418118169e-05 0.0827109136158
658 -4.57025439977e-05 0.0827111809566
659 -4.51693769493e-05 0.0827114451404
660 -4.46422454201e-05 0.0827117062039
661 -4.4121084778e-05 0.0827119641832
662 -4.36058310068e-05 0.0827122191142
663 -4.30964207029e-05 0.0827124710321
664 -4.25927910691e-05 0.0827127199721
665 -4.20948799127e-05 0.0827129659686
666 -4.16026256391e-05 0.0827132090558
667 -4.1115967249e-05 0.0827134492677
668 -4.06348443337e-05 0.0827136866375
669 -4.01591970704e-05 0.0827139211983
670 -3.9688966219e-05 0.0827141529829
671 -3.92240931163e-05 0.0827143820236
672 -3.87645196733e-05 0.0827146083522
673 -3.83101883703e-05 0.0827148320004
674 -3.78610422515e-05 0.0827150529993
675 -3.74170249232e-05 0.0827152713799
676 -3.69780805473e-05 0.0827154871727
677 -3.65441538381e-05 0.0827157004078
678 -3.61151900571e-05 0.0827159111151
679 -3.56911350105e-05 0.0827161193241
680 -3.52719350433e-05 0.0827163250639
681 -3.48575370358e-05 0.0827165283634
682 -3.44478883987e-05 0.082716729251
683 -3.40429370699e-05 0.082716927755
684 -3.36426315097e-05 0.0827171239031
685 -3.32469206961e-05 0.082717317723
686 -3.28557541219e-05 0.0827175092418
687 -3.24690817889e-05 0.0827176984865
688 -3.20868542055e-05 0.0827178854836
689 -3.17090223803e-05 0.0827180702595
690 -3.13355378203e-05 0.0827182528401
691 -3.09663525252e-05 0.0827184332512
692 -3.06014189838e-05 0.0827186115182
693 -3.02406901699e-05 0.0827187876662
694 -2.98841195378e-05 0.08271896172
695 -2.95316610191e-05 0.0827191337042
696 -2.91832690175e-05 0.0827193036431
697 -2.88388984057e-05 0.0827194715606
698 -2.84985045207e-05 0.0827196374804
699 -2.81620431601e-05 0.0827198014261
700 -2.78294705782e-05 0.0827199634207
701 -2.75007434819e-05 0.0827201234871
702 -2.71758190261e-05 0.0827202816481
703 -2.68546548117e-05 0.082720437926
704 -2.65372088787e-05 0.0827205923429
705 -2.62234397046e-05 0.0827207449207
706 -2.59133062001e-05 0.0827208956811
707 -2.5606767705e-05 0.0827210446453
708 -2.53037839835e-05 0.0827211918346
709 -2.5004315222e-05 0.0827213372698
710 -2.47083220238e-05 0.0827214809715
711 -2.44157654067e-05 0.0827216229601
712 -2.41266067979e-05 0.0827217632559
713 -2.38408080311e-05 0.0827219018787
714 -2.35583313423e-05 0.0827220388483
715 -2.3279139367e-05 0.0827221741842
716 -2.3003195135e-05 0.0827223079055
717 -2.27304620681e-05 0.0827224400314
718 -2.2460903976e-05 0.0827225705806
719 -2.21944850521e-05 0.0827226995717
720 -2.19311698712e-05 0.0827228270231
721 -2.16709233847e-05 0.082722952953
722 -2.14137109179e-05 0.0827230773794
723 -2.11594981655e-05 0.0827232003199
724 -2.09082511894e-05 0.0827233217921
725 -2.06599364143e-05 0.0827234418134
726 -2.04145206243e-05 0.0827235604009
727 -2.01719709598e-05 0.0827236775715
728 -1.99322549146e-05 0.082723793342
729 -1.96953403304e-05 0.082723907729
730 -1.94611953966e-05 0.0827240207487
731 -1.92297886442e-05 0.0827241324174
732 -1.90010889437e-05 0.0827242427509
733 -1.87750655021e-05 0.0827243517653
734 -1.85516878589e-05 0.0827244594759
735 -1.83309258836e-05 0.0827245658983
736 -1.81127497714e-05 0.0827246710477
737 -1.78971300411e-05 0.0827247749392
738 -1.76840375317e-05 0.0827248775876
739 -1.74734433988e-05 0.0827249790077
740 -1.72653191117e-05 0.0827250792141
741 -1.70596364504e-05 0.0827251782211
742 -1.68563675024e-05 0.082725276043
743 -1.66554846605e-05 0.0827253726937
744 -1.64569606177e-05 0.0827254681871
745 -1.62607683665e-05 0.0827255625371
746 -1.60668811946e-05 0.0827256557571
747 -1.58752726821e-05 0.0827257478606
748 -1.5685916699e-05 0.0827258388607
749 -1.5498787402e-05 0.0827259287707
750 -1.53138592315e-05 0.0827260176034
751 -1.51311069093e-05 0.0827261053715
752 -1.49505054349e-05 0.0827261920879
753 -1.4772030083e-05 0.0827262777649
754 -1.45956564013e-05 0.0827263624148
755 -1.44213602074e-05 0.08272644605
756 -1.42491175855e-05 0.0827265286824
757 -1.40789048841e-05 0.0827266103239
758 -1.39106987136e-05 0.0827266909864
759 -1.37444759434e-05 0.0827267706814
760 -1.35802136989e-05 0.0827268494206
761 -1.34178893591e-05 0.0827269272151
762 -1.32574805548e-05 0.0827270040763
763 -1.3098965164e-05 0.0827270800153
764 -1.2942321312e-05 0.0827271550431
765 -1.27875273662e-05 0.0827272291704
766 -1.26345619359e-05 0.0827273024081
767 -1.24834038679e-05 0.0827273747666
768 -1.23340322455e-05 0.0827274462565
769 -1.21864263851e-05 0.0827275168881
770 -1.20405658341e-05 0.0827275866716
771 -1.18964303686e-05 0.0827276556171
772 -1.1753999991e-05 0.0827277237347
773 -1.16132549272e-05 0.0827277910341
774 -1.1474175625e-05 0.0827278575251
775 -1.13367427507e-05 0.0827279232173
776 -1.12009371884e-05 0.0827279881204
777 -1.10667400361e-05 0.0827280522436
778 -1.09341326041e-05 0.0827281155963
779 -1.08030964132e-05 0.0827281781876
780 -1.0673613192e-05 0.0827282400267
781 -1.05456648743e-05 0.0827283011225
782 -1.04192335976e-05 0.0827283614839
783 -1.02943017011e-05 0.0827284211197
784 -1.01708517229e-05 0.0827284800384
785 -1.0048866398e-05 0.0827285382487
786 -9.92832865666e-06 0.082728595759
787 -9.80922162184e-06 0.0827286525777
788 -9.69152860766e-06 0.0827287087131
789 -9.57523311635e-06 0.0827287641732
790 -9.46031883784e-06 0.0827288189662
791 -9.34676964597e-06 0.0827288731
792 -9.23456959803e-06 0.0827289265825
793 -9.12370293178e-06 0.0827289794215
794 -9.01415406394e-06 0.0827290316246
795 -8.90590758826e-06 0.0827290831995
796 -8.79894827348e-06 0.0827291341537
797 -8.69326106142e-06 0.0827291844946
798 -8.58883106552e-06 0.0827292342296
799 -8.4856435684e-06 0.0827292833658
800 -8.3836840202e-06 0.0827293319104
801 -8.28293803722e-06 0.0827293798706
802 -8.18339139928e-06 0.0827294272532
803 -8.08503004888e-06 0.0827294740653
804 -7.98784008871e-06 0.0827295203136
805 -7.89180778028e-06 0.0827295660049
806 -7.79691954211e-06 0.0827296111458
807 -7.70316194767e-06 0.082729655743
808 -7.61052172442e-06 0.0827296998029
809 -7.51898575149e-06 0.082729743332
810 -7.42854105836e-06 0.0827297863367
811 -7.33917482332e-06 0.0827298288231
812 -7.25087437069e-06 0.0827298707976
813 -7.1636271716e-06 0.0827299122662
814 -7.07742083962e-06 0.0827299532351
815 -6.99224313127e-06 0.0827299937101
816 -6.90808194357e-06 0.0827300336972
817 -6.82492531223e-06 0.0827300732023
818 -6.74276141083e-06 0.0827301122312
819 -6.66157854905e-06 0.0827301507895
820 -6.58136517089e-06 0.0827301888829
821 -6.5021098533e-06 0.0827302265169
822 -6.42380130511e-06 0.0827302636971
823 -6.34642836507e-06 0.082730300429
824 -6.26998000071e-06 0.0827303367178
825 -6.19444530653e-06 0.0827303725689
826 -6.11981350306e-06 0.0827304079875
827 -6.04607393528e-06 0.0827304429789
828 -5.97321607144e-06 0.0827304775482
829 -5.90122950083e-06 0.0827305117004
830 -5.83010393389e-06 0.0827305454405
831 -5.75982919937e-06 0.0827305787735
832 -5.69039524389e-06 0.0827306117043
833 -5.62179213089e-06 0.0827306442376
834 -5.55401003793e-06 0.0827306763783
835 -5.48703925719e-06 0.0827307081311
836 -5.42087019299e-06 0.0827307395007
837 -5.35549336085e-06 0.0827307704915
838 -5.29089938645e-06 0.0827308011083
839 -5.22707900415e-06 0.0827308313554
840 -5.16402305582e-06 0.0827308612374
841 -5.10172248963e-06 0.0827308907585
842 -5.04016835919e-06 0.0827309199232
843 -4.97935182159e-06 0.0827309487358
844 -4.91926413712e-06 0.0827309772003
845 -4.85989666759e-06 0.0827310053211
846 -4.80124087509e-06 0.0827310331023
847 -4.74328832137e-06 0.0827310605479
848 -4.68603066623e-06 0.082731087662
849 -4.62945966688e-06 0.0827311144486
850 -4.57356717628e-06 0.0827311409116
851 -4.51834514232e-06 0.0827311670549
852 -4.46378560671e-06 0.0827311928823
853 -4.4098807046e-06 0.0827312183976
854 -4.35662266188e-06 0.0827312436047
855 -4.30400379638e-06 0.0827312685071
856 -4.2520165148e-06 0.0827312931086
857 -4.20065331224e-06 0.0827313174128
858 -4.14990677252e-06 0.0827313414233
859 -4.09976956529e-06 0.0827313651435
860 -4.05023444629e-06 0.0827313885771
861 -4.00129425571e-06 0.0827314117273
862 -3.95294191789e-06 0.0827314345978
863 -3.90517043988e-06 0.0827314571917
864 -3.85797290987e-06 0.0827314795125
865 -3.81134249805e-06 0.0827315015634
866 -3.76527245428e-06 0.0827315233477
867 -3.71975610701e-06 0.0827315448686
868 -3.67478686366e-06 0.0827315661293
869 -3.6303582082e-06 0.0827315871328
870 -3.58646370145e-06 0.0827316078824
871 -3.5430969799e-06 0.082731628381
872 -3.50025175455e-06 0.0827316486316
873 -3.45792180988e-06 0.0827316686374
874 -3.41610100416e-06 0.0827316884011
875 -3.37478326681e-06 0.0827317079258
876 -3.33396259954e-06 0.0827317272142
877 -3.2936330741e-06 0.0827317462694
878 -3.25378883186e-06 0.082731765094
879 -3.21442408299e-06 0.0827317836908
880 -3.17553310626e-06 0.0827318020626
881 -3.13711024721e-06 0.0827318202122
882 -3.09914991844e-06 0.0827318381421
883 -3.06164659802e-06 0.082731855855
884 -3.02459482897e-06 0.0827318733536
885 -2.987989219e-06 0.0827318906404
886 -2.95182443864e-06 0.082731907718
887 -2.91609522219e-06 0.0827319245888
888 -2.88079636527e-06 0.0827319412555
889 -2.845922725e-06 0.0827319577205
890 -2.81146921949e-06 0.0827319739861
891 -2.77743082655e-06 0.0827319900548
892 -2.7438025832e-06 0.082732005929
893 -2.71057958516e-06 0.0827320216111
894 -2.67775698613e-06 0.0827320371032
895 -2.64532999711e-06 0.0827320524078
896 -2.61329388516e-06 0.0827320675271
897 -2.58164397409e-06 0.0827320824632
898 -2.5503756422e-06 0.0827320972186
899 -2.51948432277e-06 0.0827321117952
900 -2.48896550316e-06 0.0827321261953
901 -2.4588147239e-06 0.0827321404211
902 -2.42902757867e-06 0.0827321544745
903 -2.3995997126e-06 0.0827321683577
904 -2.37052682289e-06 0.0827321820728
905 -2.34180465775e-06 0.0827321956217
906 -2.31342901541e-06 0.0827322090065
907 -2.28539574406e-06 0.0827322222292
908 -2.25770074077e-06 0.0827322352917
909 -2.23033995198e-06 0.0827322481959
910 -2.20330937117e-06 0.0827322609439
911 -2.17660504006e-06 0.0827322735373
912 -2.15022304694e-06 0.0827322859782
913 -2.12415952699e-06 0.0827322982683
914 -2.09841066018e-06 0.0827323104096
915 -2.07297267305e-06 0.0827323224037
916 -2.04784183605e-06 0.0827323342524
917 -2.0230144644e-06 0.0827323459576
918 -1.99848691668e-06 0.0827323575209
919 -1.97425559511e-06 0.0827323689441
920 -1.95031694436e-06 0.0827323802288
921 -1.9266674513e-06 0.0827323913768
922 -1.90330364475e-06 0.0827324023896
923 -1.88022209484e-06 0.082732413269
924 -1.85741941215e-06 0.0827324240164
925 -1.83489224776e-06 0.0827324346336
926 -1.81263729234e-06 0.0827324451221
927 -1.79065127643e-06 0.0827324554835
928 -1.76893096904e-06 0.0827324657192
929 -1.74747317781e-06 0.0827324758308
930 -1.72627474825e-06 0.0827324858199
931 -1.70533256357e-06 0.0827324956878
932 -1.68464354379e-06 0.0827325054361
933 -1.66420464593e-06 0.0827325150662
934 -1.64401286305e-06 0.0827325245795
935 -1.62406522435e-06 0.0827325339775
936 -1.60435879378e-06 0.0827325432614
937 -1.58489067097e-06 0.0827325524328
938 -1.56565798967e-06 0.082732561493
939 -1.54665791817e-06 0.0827325704433
940 -1.52788765807e-06 0.0827325792851
941 -1.50934444468e-06 0.0827325880196
942 -1.4910255461e-06 0.0827325966482
943 -1.47292826311e-06 0.0827326051721
944 -1.45504992894e-06 0.0827326135926
945 -1.43738790788e-06 0.082732621911
946 -1.41993959656e-06 0.0827326301285
947 -1.40270242218e-06 0.0827326382463
948 -1.38567384259e-06 0.0827326462656
949 -1.36885134663e-06 0.0827326541876
950 -1.3522324523e-06 0.0827326620135
951 -1.33581470759e-06 0.0827326697445
952 -1.3195956901e-06 0.0827326773817
953 -1.30357300592e-06 0.0827326849262
954 -1.28774429006e-06 0.0827326923792
955 -1.27210720546e-06 0.0827326997417
956 -1.2566594431e-06 0.0827327070149
957 -1.24139872211e-06 0.0827327141999
958 -1.22632278839e-06 0.0827327212977
959 -1.21142941436e-06 0.0827327283093
960 -1.19671640003e-06 0.0827327352358
961 -1.18218157095e-06 0.0827327420783
962 -1.16782277911e-06 0.0827327488378
963 -1.15363790239e-06 0.0827327555152
964 -1.13962484347e-06 0.0827327621115
965 -1.12578153069e-06 0.0827327686278
966 -1.11210591677e-06 0.0827327750651
967 -1.09859597907e-06 0.0827327814241
968 -1.08524971943e-06 0.082732787706
969 -1.07206516314e-06 0.0827327939117
970 -1.05904035967e-06 0.082732800042
971 -1.04617338162e-06 0.0827328060979
972 -1.03346232454e-06 0.0827328120802
973 -1.02090530696e-06 0.08273281799
974 -1.00850047002e-06 0.082732823828
975 -9.96245976804e-07 0.0827328295951
976 -9.84140013043e-07 0.0827328352923
977 -9.7218078557e-07 0.0827328409202
978 -9.60366523159e-07 0.0827328464798
979 -9.48695475467e-07 0.0827328519719
980 -9.37165913597e-07 0.0827328573974
981 -9.2577612903e-07 0.0827328627569
982 -9.14524433853e-07 0.0827328680514
983 -9.03409160443e-07 0.0827328732816
984 -8.92428660883e-07 0.0827328784482
985 -8.81581307766e-07 0.0827328835522
986 -8.70865492503e-07 0.0827328885941
987 -8.60279626003e-07 0.0827328935748
988 -8.49822138442e-07 0.0827328984951
989 -8.39491478653e-07 0.0827329033556
990 -8.29286114164e-07 0.082732908157
991 -8.19204531122e-07 0.0827329129001
992 -8.09245233559e-07 0.0827329175857
993 -7.99406743378e-07 0.0827329222143
994 -7.8968760066e-07 0.0827329267867
995 -7.80086362751e-07 0.0827329313035
996 -7.70601604313e-07 0.0827329357655
997 -7.61231917501e-07 0.0827329401733
998 -7.5197591069e-07 0.0827329445276
999 -7.42832209629e-07 0.0827329488289
