1 -0.133157554171
2 -0.0665787770857
3 -0.0443858513905
4 -0.0332893885429
5 -0.0266315108343
6 -0.0221929256952
7 -0.0190225077388
8 -0.0166446942714
9 -0.0147952837968
10 -0.0133157554171
11 -0.0121052321974
12 -0.0110964628476
13 -0.0102428887824
14 -0.00951125386939
15 -0.0088771702781
16 -0.00832234713572
17 -0.0078327973042
18 -0.00739764189842
19 -0.00700829232481
20 -0.00665787770857
21 -0.00634083591293
22 -0.0060526160987
23 -0.00578945887702
24 -0.00554823142381
25 -0.00532630216686
26 -0.00512144439121
27 -0.00493176126561
28 -0.0047556269347
29 -0.00459163979902
30 -0.00443858513905
31 -0.00429540497327
32 -0.00416117356786
33 -0.00403507739914
34 -0.0039163986521
35 -0.00380450154776
36 -0.00369882094921
37 -0.00359885281545
38 -0.00350414616241
39 -0.00341429626081
40 -0.00332893885429
41 -0.00324774522369
42 -0.00317041795646
43 -0.00309668730631
44 -0.00302630804935
45 -0.00295905675937
46 -0.00289472943851
47 -0.00283313945046
48 -0.00277411571191
49 -0.00271750110554
50 -0.00266315108343
51 -0.00261093243473
52 -0.00256072219561
53 -0.00251240668248
54 -0.00246588063281
55 -0.00242104643948
56 -0.00237781346735
57 -0.0023360974416
58 -0.00229581989951
59 -0.00225690769782
60 -0.00221929256952
61 -0.00218291072412
62 -0.00214770248664
63 -0.00211361197098
64 -0.00208058678393
65 -0.00204857775648
66 -0.00201753869957
67 -0.00198742618166
68 -0.00195819932605
69 -0.00192981962567
70 -0.00190225077388
71 -0.00187545850946
72 -0.0018494104746
73 -0.00182407608454
74 -0.00179942640772
75 -0.00177543405562
76 -0.0017520730812
77 -0.00172931888534
78 -0.0017071481304
79 -0.0016855386604
80 -0.00166446942714
81 -0.00164392042187
82 -0.00162387261185
83 -0.00160430788158
84 -0.00158520897823
85 -0.00156655946084
86 -0.00154834365316
87 -0.00153054659967
88 -0.00151315402468
89 -0.00149615229406
90 -0.00147952837968
91 -0.00146326982606
92 -0.00144736471926
93 -0.00143180165776
94 -0.00141656972523
95 -0.00140165846496
96 -0.00138705785595
97 -0.00137275829043
98 -0.00135875055277
99 -0.00134502579971
100 -0.00133157554171
101 -0.00131839162546
102 -0.00130546621737
103 -0.00129279178807
104 -0.0012803610978
105 -0.00126816718259
106 -0.00125620334124
107 -0.0012444631231
108 -0.0012329403164
109 -0.00122162893735
110 -0.00121052321974
111 -0.00119961760515
112 -0.00118890673367
113 -0.00117838543515
114 -0.0011680487208
115 -0.0011578917754
116 -0.00114790994975
117 -0.0011380987536
118 -0.00112845384891
119 -0.00111897104346
120 -0.00110964628476
121 -0.00110047565431
122 -0.00109145536206
123 -0.00108258174123
124 -0.00107385124332
125 -0.00106526043337
126 -0.00105680598549
127 -0.00104848467852
128 -0.00104029339196
129 -0.0010322291021
130 -0.00102428887824
131 -0.00101646987917
132 -0.00100876934978
133 -0.00100118461783
134 -0.000993713090832
135 -0.000986352253122
136 -0.000979099663026
137 -0.000971952950157
138 -0.000964909812837
139 -0.000957968015622
140 -0.000951125386939
141 -0.000944379816819
142 -0.000937729254729
143 -0.000931171707493
144 -0.000924705237302
145 -0.000918327959803
146 -0.00091203804227
147 -0.000905833701847
148 -0.000899713203861
149 -0.000893674860211
150 -0.00088771702781
151 -0.000881838107096
152 -0.000876036540602
153 -0.000870310811578
154 -0.000864659442672
155 -0.000859080994655
156 -0.000853574065202
157 -0.000848137287716
158 -0.000842769330199
159 -0.00083746889416
160 -0.000832234713572
161 -0.00082706555386
162 -0.000821960210935
163 -0.000816917510254
164 -0.000811936305924
165 -0.000807015479827
166 -0.000802153940792
167 -0.000797350623781
168 -0.000792604489116
169 -0.000787914521725
170 -0.00078327973042
171 -0.000778699147202
172 -0.000774171826578
173 -0.000769696844922
174 -0.000765273299836
175 -0.000760900309551
176 -0.000756577012338
177 -0.000752302565941
178 -0.000748076147031
179 -0.000743896950679
180 -0.000739764189842
181 -0.00073567709487
182 -0.00073163491303
183 -0.000727636908041
184 -0.000723682359628
185 -0.000719770563089
186 -0.000715900828879
187 -0.0007120724822
188 -0.000708284862614
189 -0.000704537323659
190 -0.000700829232481
191 -0.000697159969484
192 -0.000693528927976
193 -0.000689935513842
194 -0.000686379145214
195 -0.000682859252161
196 -0.000679375276385
197 -0.000675926670921
198 -0.000672512899856
199 -0.000669133438048
200 -0.000665787770857
201 -0.000662475393888
202 -0.00065919581273
203 -0.000655948542717
204 -0.000652733108684
205 -0.000649549044739
206 -0.000646395894036
207 -0.000643273208558
208 -0.000640180548901
209 -0.000637117484074
210 -0.000634083591293
211 -0.000631078455789
212 -0.00062810167062
213 -0.000625152836486
214 -0.000622231561549
215 -0.000619337461263
216 -0.000616470158201
217 -0.000613629281896
218 -0.000610814468677
219 -0.000608025361514
220 -0.00060526160987
221 -0.000602522869554
222 -0.000599808802574
223 -0.000597119077002
224 -0.000594453366837
225 -0.000591811351873
226 -0.000589192717573
227 -0.00058659715494
228 -0.000584024360401
229 -0.000581474035683
230 -0.000578945887702
231 -0.000576439628448
232 -0.000573954974877
233 -0.000571491648805
234 -0.000569049376801
235 -0.000566627890091
236 -0.000564226924455
237 -0.000561846220133
238 -0.000559485521729
239 -0.000557144578123
240 -0.000554823142381
241 -0.000552520971666
242 -0.000550237827155
243 -0.000547973473957
244 -0.000545727681031
245 -0.000543500221108
246 -0.000541290870616
247 -0.000539099409601
248 -0.000536925621659
249 -0.000534769293861
250 -0.000532630216686
251 -0.00053050818395
252 -0.000528402992744
253 -0.000526314443366
254 -0.000524242339258
255 -0.000522186486947
256 -0.000520146695982
257 -0.000518122778877
258 -0.000516114551052
259 -0.000514121830778
260 -0.000512144439121
261 -0.000510182199891
262 -0.000508234939586
263 -0.000506302487344
264 -0.000504384674892
265 -0.000502481336496
266 -0.000500592308915
267 -0.000498717431354
268 -0.000496856545416
269 -0.000495009495061
270 -0.000493176126561
271 -0.000491356288456
272 -0.000489549831513
273 -0.000487756608687
274 -0.000485976475078
275 -0.000484209287896
276 -0.000482454906418
277 -0.000480713191955
278 -0.000478984007811
279 -0.000477267219253
280 -0.00047556269347
281 -0.000473870299543
282 -0.00047218990841
283 -0.000470521392832
284 -0.000468864627364
285 -0.000467219488321
286 -0.000465585853746
287 -0.000463963603385
288 -0.000462352618651
289 -0.0004607527826
290 -0.000459163979902
291 -0.000457586096809
292 -0.000456019021135
293 -0.000454462642223
294 -0.000452916850923
295 -0.000451381539564
296 -0.000449856601931
297 -0.000448341933237
298 -0.000446837430106
299 -0.00044534299054
300 -0.000443858513905
301 -0.000442383900902
302 -0.000440919053548
303 -0.000439463875153
304 -0.000438018270301
305 -0.000436582144825
306 -0.000435155405789
307 -0.000433737961471
308 -0.000432329721336
309 -0.000430930596024
310 -0.000429540497327
311 -0.000428159338172
312 -0.000426787032601
313 -0.000425423495756
314 -0.000424068643858
315 -0.000422722394195
316 -0.0004213846651
317 -0.000420055375935
318 -0.00041873444708
319 -0.000417421799911
320 -0.000416117356786
321 -0.000414821041033
322 -0.00041353277693
323 -0.000412252489695
324 -0.000410980105468
325 -0.000409715551297
326 -0.000408458755127
327 -0.000407209645784
328 -0.000405968152962
329 -0.000404734207208
330 -0.000403507739914
331 -0.000402288683298
332 -0.000401076970396
333 -0.000399872535049
334 -0.000398675311891
335 -0.000397485236333
336 -0.000396302244558
337 -0.000395126273506
338 -0.000393957260862
339 -0.000392795145049
340 -0.00039163986521
341 -0.000390491361207
342 -0.000389349573601
343 -0.000388214443649
344 -0.000387085913289
345 -0.000385963925135
346 -0.000384848422461
347 -0.000383739349197
348 -0.000382636649918
349 -0.000381540269832
350 -0.000380450154776
351 -0.000379366251201
352 -0.000378288506169
353 -0.000377216867341
354 -0.00037615128297
355 -0.000375091701891
356 -0.000374038073515
357 -0.000372990347819
358 -0.000371948475339
359 -0.000370912407163
360 -0.000369882094921
361 -0.00036885749078
362 -0.000367838547435
363 -0.000366825218103
364 -0.000365817456515
365 -0.000364815216908
366 -0.00036381845402
367 -0.000362827123083
368 -0.000361841179814
369 -0.000360860580411
370 -0.000359885281545
371 -0.000358915240354
372 -0.000357950414439
373 -0.000356990761854
374 -0.0003560362411
375 -0.000355086811124
376 -0.000354142431307
377 -0.000353203061463
378 -0.000352268661829
379 -0.000351339193065
380 -0.000350414616241
381 -0.000349494892839
382 -0.000348579984742
383 -0.000347669854234
384 -0.000346764463988
385 -0.000345863777069
386 -0.000344967756921
387 -0.000344076367368
388 -0.000343189572607
389 -0.000342307337202
390 -0.000341429626081
391 -0.000340556404531
392 -0.000339687638193
393 -0.000338823293057
394 -0.000337963335461
395 -0.00033710773208
396 -0.000336256449928
397 -0.000335409456351
398 -0.000334566719024
399 -0.000333728205944
400 -0.000332893885429
401 -0.000332063726113
402 -0.000331237696944
403 -0.000330415767175
404 -0.000329597906365
405 -0.000328784084374
406 -0.000327974271358
407 -0.000327168437768
408 -0.000326366554342
409 -0.000325568592106
410 -0.000324774522369
411 -0.000323984316719
412 -0.000323197947018
413 -0.000322415385403
414 -0.000321636604279
415 -0.000320861576317
416 -0.000320090274451
417 -0.000319322671874
418 -0.000318558742037
419 -0.000317798458643
420 -0.000317041795646
421 -0.000316288727248
422 -0.000315539227895
423 -0.000314793272273
424 -0.00031405083531
425 -0.000313311892168
426 -0.000312576418243
427 -0.00031184438916
428 -0.000311115780774
429 -0.000310390569164
430 -0.000309668730631
431 -0.000308950241697
432 -0.000308235079101
433 -0.000307523219796
434 -0.000306814640948
435 -0.000306109319934
436 -0.000305407234338
437 -0.000304708361948
438 -0.000304012680757
439 -0.000303320168956
440 -0.000302630804935
441 -0.000301944567282
442 -0.000301261434777
443 -0.000300581386392
444 -0.000299904401287
445 -0.000299230458812
446 -0.000298559538501
447 -0.00029789162007
448 -0.000297226683418
449 -0.000296564708622
450 -0.000295905675937
451 -0.00029524956579
452 -0.000294596358786
453 -0.000293946035699
454 -0.00029329857747
455 -0.000292653965212
456 -0.000292012180201
457 -0.000291373203876
458 -0.000290737017842
459 -0.000290103603859
460 -0.000289472943851
461 -0.000288845019895
462 -0.000288219814224
463 -0.000287597309226
464 -0.000286977487439
465 -0.000286360331552
466 -0.000285745824402
467 -0.000285133948975
468 -0.000284524688401
469 -0.000283918025952
470 -0.000283313945046
471 -0.000282712429239
472 -0.000282113462228
473 -0.000281517027847
474 -0.000280923110066
475 -0.000280331692993
476 -0.000279742760864
477 -0.000279156298053
478 -0.000278572289062
479 -0.000277990718521
480 -0.000277411571191
481 -0.000276834831957
482 -0.000276260485833
483 -0.000275688517953
484 -0.000275118913577
485 -0.000274551658086
486 -0.000273986736978
487 -0.000273424135876
488 -0.000272863840515
489 -0.000272305836751
490 -0.000271750110554
491 -0.000271196648007
492 -0.000270645435308
493 -0.000270096458766
494 -0.000269549704801
495 -0.000269005159942
496 -0.00026846281083
497 -0.000267922644208
498 -0.000267384646931
499 -0.000266848805955
500 -0.000266315108343
501 -0.00026578354126
502 -0.000265254091975
503 -0.000264726747856
504 -0.000264201496372
505 -0.000263678325092
506 -0.000263157221683
507 -0.000262638173908
508 -0.000262121169629
509 -0.000261606196801
510 -0.000261093243473
511 -0.000260582297792
512 -0.000260073347991
513 -0.000259566382401
514 -0.000259061389439
515 -0.000258558357615
516 -0.000258057275526
517 -0.00025755813186
518 -0.000257060915389
519 -0.000256565614974
520 -0.000256072219561
521 -0.000255580718179
522 -0.000255091099945
523 -0.000254603354056
524 -0.000254117469793
525 -0.000253633436517
526 -0.000253151243672
527 -0.000252670880781
528 -0.000252192337446
529 -0.000251715603349
530 -0.000251240668248
531 -0.00025076752198
532 -0.000250296154458
533 -0.000249826555669
534 -0.000249358715677
535 -0.00024889262462
536 -0.000248428272708
537 -0.000247965650226
538 -0.000247504747531
539 -0.000247045555049
540 -0.000246588063281
541 -0.000246132262794
542 -0.000245678144228
543 -0.00024522569829
544 -0.000244774915756
545 -0.000244325787471
546 -0.000243878304343
547 -0.000243432457352
548 -0.000242988237539
549 -0.000242545636014
550 -0.000242104643948
551 -0.00024166525258
552 -0.000241227453209
553 -0.0002407912372
554 -0.000240356595977
555 -0.00023992352103
556 -0.000239492003906
557 -0.000239062036215
558 -0.000238633609626
559 -0.00023820671587
560 -0.000237781346735
561 -0.000237357494067
562 -0.000236935149771
563 -0.000236514305811
564 -0.000236094954205
565 -0.000235677087029
566 -0.000235260696416
567 -0.000234845774553
568 -0.000234432313682
569 -0.000234020306101
570 -0.00023360974416
571 -0.000233200620265
572 -0.000232792926873
573 -0.000232386656495
574 -0.000231981801692
575 -0.000231578355081
576 -0.000231176309325
577 -0.000230775657143
578 -0.0002303763913
579 -0.000229978504614
580 -0.000229581989951
581 -0.000229186840226
582 -0.000228793048405
583 -0.000228400607498
584 -0.000228009510568
585 -0.00022761975072
586 -0.000227231321112
587 -0.000226844214943
588 -0.000226458425462
589 -0.000226073945962
590 -0.000225690769782
591 -0.000225308890307
592 -0.000224928300965
593 -0.00022454899523
594 -0.000224170966619
595 -0.000223794208692
596 -0.000223418715053
597 -0.000223044479349
598 -0.00022267149527
599 -0.000222299756547
600 -0.000221929256952
601 -0.000221559990302
602 -0.000221191950451
603 -0.000220825131296
604 -0.000220459526774
605 -0.000220095130862
606 -0.000219731937577
607 -0.000219369940974
608 -0.00021900913515
609 -0.000218649514239
610 -0.000218291072412
611 -0.000217933803881
612 -0.000217577702895
613 -0.000217222763738
614 -0.000216868980735
615 -0.000216516348246
616 -0.000216164860668
617 -0.000215814512434
618 -0.000215465298012
619 -0.000215117211909
620 -0.000214770248664
621 -0.000214424402853
622 -0.000214079669086
623 -0.000213736042009
624 -0.0002133935163
625 -0.000213052086674
626 -0.000212711747878
627 -0.000212372494691
628 -0.000212034321929
629 -0.000211697224438
630 -0.000211361197098
631 -0.00021102623482
632 -0.00021069233255
633 -0.000210359485263
634 -0.000210027687968
635 -0.000209696935703
636 -0.00020936722354
637 -0.00020903854658
638 -0.000208710899955
639 -0.000208384278829
640 -0.000208058678393
641 -0.000207734093871
642 -0.000207410520516
643 -0.00020708795361
644 -0.000206766388465
645 -0.000206445820421
646 -0.000206126244847
647 -0.000205807657143
648 -0.000205490052734
649 -0.000205173427075
650 -0.000204857775648
651 -0.000204543093965
652 -0.000204229377564
653 -0.000203916622008
654 -0.000203604822892
655 -0.000203293975834
656 -0.000202984076481
657 -0.000202675120505
658 -0.000202367103604
659 -0.000202060021505
660 -0.000201753869957
661 -0.000201448644737
662 -0.000201144341649
663 -0.000200840956518
664 -0.000200538485198
665 -0.000200236923566
666 -0.000199936267525
667 -0.000199636513001
668 -0.000199337655945
669 -0.000199039692334
670 -0.000198742618166
671 -0.000198446429466
672 -0.000198151122279
673 -0.000197856692677
674 -0.000197563136753
675 -0.000197270450624
676 -0.000196978630431
677 -0.000196687672336
678 -0.000196397572524
679 -0.000196108327204
680 -0.000195819932605
681 -0.00019553238498
682 -0.000195245680603
683 -0.000194959815771
684 -0.0001946747868
685 -0.000194390590031
686 -0.000194107221824
687 -0.000193824678561
688 -0.000193542956645
689 -0.000193262052499
690 -0.000192981962567
691 -0.000192702683316
692 -0.00019242421123
693 -0.000192146542816
694 -0.000191869674599
695 -0.000191593603124
696 -0.000191318324959
697 -0.000191043836688
698 -0.000190770134916
699 -0.000190497216268
700 -0.000190225077388
701 -0.000189953714938
702 -0.0001896831256
703 -0.000189413306076
704 -0.000189144253084
705 -0.000188875963364
706 -0.000188608433671
707 -0.00018834166078
708 -0.000188075641485
709 -0.000187810372597
710 -0.000187545850946
711 -0.000187282073378
712 -0.000187019036758
713 -0.000186756737968
714 -0.00018649517391
715 -0.000186234341499
716 -0.00018597423767
717 -0.000185714859374
718 -0.000185456203581
719 -0.000185198267276
720 -0.00018494104746
721 -0.000184684541153
722 -0.00018442874539
723 -0.000184173657222
724 -0.000183919273718
725 -0.000183665591961
726 -0.000183412609052
727 -0.000183160322107
728 -0.000182908728258
729 -0.000182657824652
730 -0.000182407608454
731 -0.000182158076842
732 -0.00018190922701
733 -0.000181661056168
734 -0.000181413561542
735 -0.000181166740369
736 -0.000180920589907
737 -0.000180675107424
738 -0.000180430290205
739 -0.00018018613555
740 -0.000179942640772
741 -0.0001796998032
742 -0.000179457620177
743 -0.00017921608906
744 -0.00017897520722
745 -0.000178734972042
746 -0.000178495380927
747 -0.000178256431287
748 -0.00017801812055
749 -0.000177780446157
750 -0.000177543405562
751 -0.000177306996234
752 -0.000177071215654
753 -0.000176836061317
754 -0.000176601530731
755 -0.000176367621419
756 -0.000176134330915
757 -0.000175901656765
758 -0.000175669596532
759 -0.000175438147789
760 -0.00017520730812
761 -0.000174977075127
762 -0.000174747446419
763 -0.000174518419622
764 -0.000174289992371
765 -0.000174062162316
766 -0.000173834927117
767 -0.000173608284448
768 -0.000173382231994
769 -0.000173156767453
770 -0.000172931888534
771 -0.000172707592959
772 -0.00017248387846
773 -0.000172260742783
774 -0.000172038183684
775 -0.000171816198931
776 -0.000171594786303
777 -0.000171373943593
778 -0.000171153668601
779 -0.000170933959142
780 -0.00017071481304
781 -0.000170496228132
782 -0.000170278202265
783 -0.000170060733297
784 -0.000169843819096
785 -0.000169627457543
786 -0.000169411646529
787 -0.000169196383954
788 -0.00016898166773
789 -0.000168767495781
790 -0.00016855386604
791 -0.000168340776449
792 -0.000168128224964
793 -0.000167916209548
794 -0.000167704728176
795 -0.000167493778832
796 -0.000167283359512
797 -0.00016707346822
798 -0.000166864102972
799 -0.000166655261792
800 -0.000166446942714
801 -0.000166239143785
802 -0.000166031863057
803 -0.000165825098595
804 -0.000165618848472
805 -0.000165413110772
806 -0.000165207883587
807 -0.00016500316502
808 -0.000164798953183
809 -0.000164595246195
810 -0.000164392042187
811 -0.000164189339299
812 -0.000163987135679
813 -0.000163785429485
814 -0.000163584218884
815 -0.000163383502051
816 -0.000163183277171
817 -0.000162983542438
818 -0.000162784296053
819 -0.000162585536229
820 -0.000162387261185
821 -0.000162189469149
822 -0.000161992158359
823 -0.000161795327061
824 -0.000161598973509
825 -0.000161403095965
826 -0.000161207692702
827 -0.000161012761997
828 -0.000160818302139
829 -0.000160624311425
830 -0.000160430788158
831 -0.000160237730652
832 -0.000160045137225
833 -0.000159853006208
834 -0.000159661335937
835 -0.000159470124756
836 -0.000159279371019
837 -0.000159089073084
838 -0.000158899229322
839 -0.000158709838107
840 -0.000158520897823
841 -0.000158332406863
842 -0.000158144363624
843 -0.000157956766514
844 -0.000157769613947
845 -0.000157582904345
846 -0.000157396636137
847 -0.000157210807759
848 -0.000157025417655
849 -0.000156840464277
850 -0.000156655946084
851 -0.000156471861541
852 -0.000156288209121
853 -0.000156104987305
854 -0.00015592219458
855 -0.00015573982944
856 -0.000155557890387
857 -0.000155376375929
858 -0.000155195284582
859 -0.000155014614868
860 -0.000154834365316
861 -0.000154654534462
862 -0.000154475120849
863 -0.000154296123026
864 -0.00015411753955
865 -0.000153939368984
866 -0.000153761609898
867 -0.000153584260867
868 -0.000153407320474
869 -0.000153230787309
870 -0.000153054659967
871 -0.000152878937051
872 -0.000152703617169
873 -0.000152528698936
874 -0.000152354180974
875 -0.00015218006191
876 -0.000152006340378
877 -0.000151833015019
878 -0.000151660084478
879 -0.000151487547408
880 -0.000151315402468
881 -0.000151143648322
882 -0.000150972283641
883 -0.000150801307102
884 -0.000150630717389
885 -0.000150460513188
886 -0.000150290693196
887 -0.000150121256112
888 -0.000149952200644
889 -0.000149783525502
890 -0.000149615229406
891 -0.000149447311079
892 -0.000149279769251
893 -0.000149112602656
894 -0.000148945810035
895 -0.000148779390136
896 -0.000148613341709
897 -0.000148447663513
898 -0.000148282354311
899 -0.000148117412872
900 -0.000147952837968
901 -0.000147788628381
902 -0.000147624782895
903 -0.000147461300301
904 -0.000147298179393
905 -0.000147135418974
906 -0.000146973017849
907 -0.000146810974831
908 -0.000146649288735
909 -0.000146487958384
910 -0.000146326982606
911 -0.000146166360232
912 -0.0001460060901
913 -0.000145846171053
914 -0.000145686601938
915 -0.000145527381608
916 -0.000145368508921
917 -0.000145209982739
918 -0.00014505180193
919 -0.000144893965366
920 -0.000144736471926
921 -0.00014457932049
922 -0.000144422509947
923 -0.000144266039189
924 -0.000144109907112
925 -0.000143954112618
926 -0.000143798654613
927 -0.000143643532008
928 -0.000143488743719
929 -0.000143334288667
930 -0.000143180165776
931 -0.000143026373976
932 -0.000142872912201
933 -0.000142719779391
934 -0.000142566974488
935 -0.00014241449644
936 -0.0001422623442
937 -0.000142110516725
938 -0.000141959012976
939 -0.000141807831919
940 -0.000141656972523
941 -0.000141506433764
942 -0.000141356214619
943 -0.000141206314074
944 -0.000141056731114
945 -0.000140907464732
946 -0.000140758513923
947 -0.000140609877689
948 -0.000140461555033
949 -0.000140313544965
950 -0.000140165846496
951 -0.000140018458645
952 -0.000139871380432
953 -0.000139724610883
954 -0.000139578149027
955 -0.000139431993897
956 -0.000139286144531
957 -0.00013914059997
958 -0.00013899535926
959 -0.000138850421451
960 -0.000138705785595
961 -0.000138561450751
962 -0.000138417415979
963 -0.000138273680344
964 -0.000138130242916
965 -0.000137987102768
966 -0.000137844258977
967 -0.000137701710622
968 -0.000137559456789
969 -0.000137417496565
970 -0.000137275829043
971 -0.000137134453318
972 -0.000136993368489
973 -0.00013685257366
974 -0.000136712067938
975 -0.000136571850432
976 -0.000136431920258
977 -0.000136292276532
978 -0.000136152918376
979 -0.000136013844915
980 -0.000135875055277
981 -0.000135736548595
982 -0.000135598324004
983 -0.000135460380642
984 -0.000135322717654
985 -0.000135185334184
986 -0.000135048229383
987 -0.000134911402403
988 -0.0001347748524
989 -0.000134638578535
990 -0.000134502579971
991 -0.000134366855874
992 -0.000134231405415
993 -0.000134096227766
994 -0.000133961322104
995 -0.00013382668761
996 -0.000133692323465
997 -0.000133558228858
998 -0.000133424402977
999 -0.000133290845016
